<?xml version="1.0"?>
<opencv_storage>
<cascade>
  <stageType>BOOST</stageType>
  <featureType>HAAR</featureType>
  <height>24</height>
  <width>24</width>
  <stageParams>
    <boostType>GAB</boostType>
    <minHitRate>9.9500000476837158e-01</minHitRate>
    <maxFalseAlarm>5.0000000000000000e-01</maxFalseAlarm>
    <weightTrimRate>9.4999998807907104e-01</weightTrimRate>
    <maxDepth>1</maxDepth>
    <maxWeakCount>100</maxWeakCount></stageParams>
  <featureParams>
    <maxCatCount>0</maxCatCount>
    <featSize>1</featSize>
    <mode>BASIC</mode></featureParams>
  <stageNum>19</stageNum>
  <stages>
    <!-- stage 0 -->
    <_>
      <maxWeakCount>4</maxWeakCount>
      <stageThreshold>-2.1178672313690186e+00</stageThreshold>
      <weakClassifiers>
        <_>
          <internalNodes>
            0 -1 78 -1.7373295500874519e-02</internalNodes>
          <leafValues>
            8.1102359294891357e-01 -9.1133004426956177e-01</leafValues></_>
        <_>
          <internalNodes>
            0 -1 74 -1.0744951665401459e-01</internalNodes>
          <leafValues>
            7.6728659868240356e-01 -7.8551912307739258e-01</leafValues></_>
        <_>
          <internalNodes>
            0 -1 98 4.0142677724361420e-02</internalNodes>
          <leafValues>
            -7.9907029867172241e-01 5.2336233854293823e-01</leafValues></_>
        <_>
          <internalNodes>
            0 -1 58 -7.7469372190535069e-03</internalNodes>
          <leafValues>
            3.7805217504501343e-01 -7.2337055206298828e-01</leafValues></_></weakClassifiers></_>
    <!-- stage 1 -->
    <_>
      <maxWeakCount>4</maxWeakCount>
      <stageThreshold>-1.8517943620681763e+00</stageThreshold>
      <weakClassifiers>
        <_>
          <internalNodes>
            0 -1 76 -9.8559163510799408e-02</internalNodes>
          <leafValues>
            8.3040934801101685e-01 -8.6316627264022827e-01</leafValues></_>
        <_>
          <internalNodes>
            0 -1 89 -1.0754512250423431e-01</internalNodes>
          <leafValues>
            5.2845996618270874e-01 -8.2171148061752319e-01</leafValues></_>
        <_>
          <internalNodes>
            0 -1 63 3.0798085033893585e-02</internalNodes>
          <leafValues>
            -6.3790333271026611e-01 6.8475836515426636e-01</leafValues></_>
        <_>
          <internalNodes>
            0 -1 67 -1.2126347050070763e-02</internalNodes>
          <leafValues>
            4.7098669409751892e-01 -5.5610215663909912e-01</leafValues></_></weakClassifiers></_>
    <!-- stage 2 -->
    <_>
      <maxWeakCount>5</maxWeakCount>
      <stageThreshold>-1.6477346420288086e+00</stageThreshold>
      <weakClassifiers>
        <_>
          <internalNodes>
            0 -1 61 -1.0827237367630005e-01</internalNodes>
          <leafValues>
            6.8508285284042358e-01 -8.4801942110061646e-01</leafValues></_>
        <_>
          <internalNodes>
            0 -1 96 -4.2723555117845535e-02</internalNodes>
          <leafValues>
            5.4926794767379761e-01 -6.6976207494735718e-01</leafValues></_>
        <_>
          <internalNodes>
            0 -1 108 -9.2770485207438469e-03</internalNodes>
          <leafValues>
            4.0372413396835327e-01 -6.3092011213302612e-01</leafValues></_>
        <_>
          <internalNodes>
            0 -1 51 -7.2521969676017761e-02</internalNodes>
          <leafValues>
            2.6124331355094910e-01 -7.5464653968811035e-01</leafValues></_>
        <_>
          <internalNodes>
            0 -1 151 -1.1037388816475868e-02</internalNodes>
          <leafValues>
            -9.8070591688156128e-01 2.3972363770008087e-01</leafValues></_></weakClassifiers></_>
    <!-- stage 3 -->
    <_>
      <maxWeakCount>3</maxWeakCount>
      <stageThreshold>-1.3903493881225586e+00</stageThreshold>
      <weakClassifiers>
        <_>
          <internalNodes>
            0 -1 92 -9.4551593065261841e-02</internalNodes>
          <leafValues>
            6.7326730489730835e-01 -8.9790797233581543e-01</leafValues></_>
        <_>
          <internalNodes>
            0 -1 5 7.2585165500640869e-02</internalNodes>
          <leafValues>
            -8.5351413488388062e-01 6.5968608856201172e-01</leafValues></_>
        <_>
          <internalNodes>
            0 -1 154 -7.9412721097469330e-03</internalNodes>
          <leafValues>
            3.6107274889945984e-01 -7.5508952140808105e-01</leafValues></_></weakClassifiers></_>
    <!-- stage 4 -->
    <_>
      <maxWeakCount>5</maxWeakCount>
      <stageThreshold>-2.1849620342254639e+00</stageThreshold>
      <weakClassifiers>
        <_>
          <internalNodes>
            0 -1 30 6.7397430539131165e-02</internalNodes>
          <leafValues>
            -8.5787671804428101e-01 4.6635732054710388e-01</leafValues></_>
        <_>
          <internalNodes>
            0 -1 92 -1.1029081046581268e-01</internalNodes>
          <leafValues>
            6.8280929327011108e-01 -6.9020867347717285e-01</leafValues></_>
        <_>
          <internalNodes>
            0 -1 121 -3.6068204790353775e-03</internalNodes>
          <leafValues>
            3.6684307456016541e-01 -7.7213233709335327e-01</leafValues></_>
        <_>
          <internalNodes>
            0 -1 80 8.7144663557410240e-03</internalNodes>
          <leafValues>
            -6.3223141431808472e-01 4.3530446290969849e-01</leafValues></_>
        <_>
          <internalNodes>
            0 -1 135 4.6054337173700333e-02</internalNodes>
          <leafValues>
            -3.7148824334144592e-01 6.3886874914169312e-01</leafValues></_></weakClassifiers></_>
    <!-- stage 5 -->
    <_>
      <maxWeakCount>7</maxWeakCount>
      <stageThreshold>-1.8372298479080200e+00</stageThreshold>
      <weakClassifiers>
        <_>
          <internalNodes>
            0 -1 53 2.5858540087938309e-02</internalNodes>
          <leafValues>
            -8.3951681852340698e-01 3.9090910553932190e-01</leafValues></_>
        <_>
          <internalNodes>
            0 -1 85 -6.1540886759757996e-02</internalNodes>
          <leafValues>
            4.3844184279441833e-01 -7.3725473880767822e-01</leafValues></_>
        <_>
          <internalNodes>
            0 -1 62 1.9367389380931854e-02</internalNodes>
          <leafValues>
            -7.1703636646270752e-01 3.6172637343406677e-01</leafValues></_>
        <_>
          <internalNodes>
            0 -1 118 -2.2877512674313039e-04</internalNodes>
          <leafValues>
            2.8444972634315491e-01 -7.2840934991836548e-01</leafValues></_>
        <_>
          <internalNodes>
            0 -1 79 2.9510209336876869e-02</internalNodes>
          <leafValues>
            -8.1235051155090332e-01 2.4698114395141602e-01</leafValues></_>
        <_>
          <internalNodes>
            0 -1 47 3.1354785896837711e-03</internalNodes>
          <leafValues>
            -3.1935662031173706e-01 6.5832459926605225e-01</leafValues></_>
        <_>
          <internalNodes>
            0 -1 45 -2.6438413187861443e-03</internalNodes>
          <leafValues>
            2.4450385570526123e-01 -8.2416933774948120e-01</leafValues></_></weakClassifiers></_>
    <!-- stage 6 -->
    <_>
      <maxWeakCount>5</maxWeakCount>
      <stageThreshold>-1.6108002662658691e+00</stageThreshold>
      <weakClassifiers>
        <_>
          <internalNodes>
            0 -1 91 -1.5492226183414459e-01</internalNodes>
          <leafValues>
            5.8361774682998657e-01 -7.4425727128982544e-01</leafValues></_>
        <_>
          <internalNodes>
            0 -1 7 -5.7813204824924469e-02</internalNodes>
          <leafValues>
            6.3122791051864624e-01 -5.4821836948394775e-01</leafValues></_>
        <_>
          <internalNodes>
            0 -1 104 -5.9268907643854618e-03</internalNodes>
          <leafValues>
            3.2282012701034546e-01 -6.8873661756515503e-01</leafValues></_>
        <_>
          <internalNodes>
            0 -1 102 -2.3560295812785625e-03</internalNodes>
          <leafValues>
            -8.9820212125778198e-01 1.9376622140407562e-01</leafValues></_>
        <_>
          <internalNodes>
            0 -1 20 1.6038004541769624e-03</internalNodes>
          <leafValues>
            1.7664575576782227e-01 -9.2558312416076660e-01</leafValues></_></weakClassifiers></_>
    <!-- stage 7 -->
    <_>
      <maxWeakCount>6</maxWeakCount>
      <stageThreshold>-1.7612656354904175e+00</stageThreshold>
      <weakClassifiers>
        <_>
          <internalNodes>
            0 -1 75 -1.0366661846637726e-01</internalNodes>
          <leafValues>
            4.1463413834571838e-01 -7.7560973167419434e-01</leafValues></_>
        <_>
          <internalNodes>
            0 -1 37 -1.5027918852865696e-02</internalNodes>
          <leafValues>
            4.1189101338386536e-01 -5.6246030330657959e-01</leafValues></_>
        <_>
          <internalNodes>
            0 -1 141 -3.4199401736259460e-02</internalNodes>
          <leafValues>
            2.7669119834899902e-01 -7.6763403415679932e-01</leafValues></_>
        <_>
          <internalNodes>
            0 -1 110 1.6917856410145760e-02</internalNodes>
          <leafValues>
            -4.8828724026679993e-01 4.5643743872642517e-01</leafValues></_>
        <_>
          <internalNodes>
            0 -1 148 8.0312844365835190e-03</internalNodes>
          <leafValues>
            -4.0122240781784058e-01 4.4116044044494629e-01</leafValues></_>
        <_>
          <internalNodes>
            0 -1 73 4.8390316078439355e-04</internalNodes>
          <leafValues>
            1.8962286412715912e-01 -9.2537420988082886e-01</leafValues></_></weakClassifiers></_>
    <!-- stage 8 -->
    <_>
      <maxWeakCount>6</maxWeakCount>
      <stageThreshold>-1.7807861566543579e+00</stageThreshold>
      <weakClassifiers>
        <_>
          <internalNodes>
            0 -1 97 -5.1081381738185883e-02</internalNodes>
          <leafValues>
            3.5087719559669495e-01 -7.3269689083099365e-01</leafValues></_>
        <_>
          <internalNodes>
            0 -1 44 3.0325945466756821e-02</internalNodes>
          <leafValues>
            -7.9661220312118530e-01 2.5751900672912598e-01</leafValues></_>
        <_>
          <internalNodes>
            0 -1 46 -4.5785978436470032e-02</internalNodes>
          <leafValues>
            4.2404189705848694e-01 -4.6674749255180359e-01</leafValues></_>
        <_>
          <internalNodes>
            0 -1 81 -3.8179561495780945e-02</internalNodes>
          <leafValues>
            3.8086608052253723e-01 -4.4982063770294189e-01</leafValues></_>
        <_>
          <internalNodes>
            0 -1 60 -4.0566413663327694e-03</internalNodes>
          <leafValues>
            -8.3648812770843506e-01 2.0183064043521881e-01</leafValues></_>
        <_>
          <internalNodes>
            0 -1 25 4.2417523218318820e-04</internalNodes>
          <leafValues>
            -4.1268163919448853e-01 3.2277789711952209e-01</leafValues></_></weakClassifiers></_>
    <!-- stage 9 -->
    <_>
      <maxWeakCount>10</maxWeakCount>
      <stageThreshold>-1.7822337150573730e+00</stageThreshold>
      <weakClassifiers>
        <_>
          <internalNodes>
            0 -1 17 -2.7276307344436646e-02</internalNodes>
          <leafValues>
            1.2068965286016464e-01 -7.5506609678268433e-01</leafValues></_>
        <_>
          <internalNodes>
            0 -1 130 4.3983563780784607e-02</internalNodes>
          <leafValues>
            -5.0250297784805298e-01 4.4548895955085754e-01</leafValues></_>
        <_>
          <internalNodes>
            0 -1 59 -1.0102383792400360e-02</internalNodes>
          <leafValues>
            2.0527888834476471e-01 -7.0581668615341187e-01</leafValues></_>
        <_>
          <internalNodes>
            0 -1 13 -8.1311808899044991e-03</internalNodes>
          <leafValues>
            -8.3270704746246338e-01 1.8246206641197205e-01</leafValues></_>
        <_>
          <internalNodes>
            0 -1 162 -1.8753986805677414e-02</internalNodes>
          <leafValues>
            4.4077840447425842e-01 -3.2822835445404053e-01</leafValues></_>
        <_>
          <internalNodes>
            0 -1 56 -1.1106525547802448e-02</internalNodes>
          <leafValues>
            3.3181503415107727e-01 -3.8837802410125732e-01</leafValues></_>
        <_>
          <internalNodes>
            0 -1 124 -5.5685744155198336e-04</internalNodes>
          <leafValues>
            -8.8863867521286011e-01 1.6067802906036377e-01</leafValues></_>
        <_>
          <internalNodes>
            0 -1 107 2.6294067502021790e-03</internalNodes>
          <leafValues>
            -7.5122308731079102e-01 1.4461834728717804e-01</leafValues></_>
        <_>
          <internalNodes>
            0 -1 8 -2.0200932398438454e-02</internalNodes>
          <leafValues>
            -8.1263059377670288e-01 1.3731291890144348e-01</leafValues></_>
        <_>
          <internalNodes>
            0 -1 95 1.3192330952733755e-03</internalNodes>
          <leafValues>
            2.7268698811531067e-01 -4.7637170553207397e-01</leafValues></_></weakClassifiers></_>
    <!-- stage 10 -->
    <_>
      <maxWeakCount>10</maxWeakCount>
      <stageThreshold>-1.7694413661956787e+00</stageThreshold>
      <weakClassifiers>
        <_>
          <internalNodes>
            0 -1 105 -1.0499969124794006e-01</internalNodes>
          <leafValues>
            7.5757575035095215e-01 -6.1417859792709351e-01</leafValues></_>
        <_>
          <internalNodes>
            0 -1 29 -1.3701436109840870e-02</internalNodes>
          <leafValues>
            3.2486477494239807e-01 -6.1930900812149048e-01</leafValues></_>
        <_>
          <internalNodes>
            0 -1 112 4.5767063274979591e-03</internalNodes>
          <leafValues>
            2.4059215188026428e-01 -7.4625468254089355e-01</leafValues></_>
        <_>
          <internalNodes>
            0 -1 127 2.0072997358511202e-05</internalNodes>
          <leafValues>
            -7.6398074626922607e-01 2.1143274009227753e-01</leafValues></_>
        <_>
          <internalNodes>
            0 -1 23 -1.5216536819934845e-02</internalNodes>
          <leafValues>
            3.2083168625831604e-01 -4.1533190011978149e-01</leafValues></_>
        <_>
          <internalNodes>
            0 -1 120 -2.9998905956745148e-02</internalNodes>
          <leafValues>
            6.0722678899765015e-01 -2.0524916052818298e-01</leafValues></_>
        <_>
          <internalNodes>
            0 -1 39 1.1542903957888484e-03</internalNodes>
          <leafValues>
            1.8167969584465027e-01 -7.5979727506637573e-01</leafValues></_>
        <_>
          <internalNodes>
            0 -1 87 -5.2691581659018993e-03</internalNodes>
          <leafValues>
            6.1390405893325806e-01 -2.5942987203598022e-01</leafValues></_>
        <_>
          <internalNodes>
            0 -1 77 2.1688188426196575e-03</internalNodes>
          <leafValues>
            -6.3578140735626221e-01 2.1390533447265625e-01</leafValues></_>
        <_>
          <internalNodes>
            0 -1 52 1.6660638153553009e-02</internalNodes>
          <leafValues>
            -4.0147319436073303e-01 3.7080422043800354e-01</leafValues></_></weakClassifiers></_>
    <!-- stage 11 -->
    <_>
      <maxWeakCount>10</maxWeakCount>
      <stageThreshold>-1.5149269104003906e+00</stageThreshold>
      <weakClassifiers>
        <_>
          <internalNodes>
            0 -1 137 -3.9631381630897522e-02</internalNodes>
          <leafValues>
            7.1428573131561279e-01 -6.3044983148574829e-01</leafValues></_>
        <_>
          <internalNodes>
            0 -1 160 1.3232441851869226e-03</internalNodes>
          <leafValues>
            -5.8321458101272583e-01 2.9007464647293091e-01</leafValues></_>
        <_>
          <internalNodes>
            0 -1 146 -4.2248569428920746e-02</internalNodes>
          <leafValues>
            4.8012092709541321e-01 -3.5658448934555054e-01</leafValues></_>
        <_>
          <internalNodes>
            0 -1 55 6.5010376274585724e-03</internalNodes>
          <leafValues>
            -3.9463305473327637e-01 3.1499224901199341e-01</leafValues></_>
        <_>
          <internalNodes>
            0 -1 150 6.6051154863089323e-04</internalNodes>
          <leafValues>
            2.2573763132095337e-01 -6.8220603466033936e-01</leafValues></_>
        <_>
          <internalNodes>
            0 -1 123 3.2324908534064889e-04</internalNodes>
          <leafValues>
            1.4242006838321686e-01 -6.9375413656234741e-01</leafValues></_>
        <_>
          <internalNodes>
            0 -1 106 1.0371994227170944e-02</internalNodes>
          <leafValues>
            -3.9061763882637024e-01 3.0318745970726013e-01</leafValues></_>
        <_>
          <internalNodes>
            0 -1 99 -1.9631542265415192e-02</internalNodes>
          <leafValues>
            5.3671795129776001e-01 -2.2768037021160126e-01</leafValues></_>
        <_>
          <internalNodes>
            0 -1 144 2.7367374859750271e-03</internalNodes>
          <leafValues>
            1.6656702756881714e-01 -8.1862950325012207e-01</leafValues></_>
        <_>
          <internalNodes>
            0 -1 16 -8.9784769807010889e-04</internalNodes>
          <leafValues>
            -7.2782343626022339e-01 1.1476323008537292e-01</leafValues></_></weakClassifiers></_>
    <!-- stage 12 -->
    <_>
      <maxWeakCount>14</maxWeakCount>
      <stageThreshold>-1.7020061016082764e+00</stageThreshold>
      <weakClassifiers>
        <_>
          <internalNodes>
            0 -1 115 -3.9078809320926666e-02</internalNodes>
          <leafValues>
            6.4331209659576416e-01 -6.2552011013031006e-01</leafValues></_>
        <_>
          <internalNodes>
            0 -1 49 -5.4928902536630630e-03</internalNodes>
          <leafValues>
            3.4554067254066467e-01 -4.7817575931549072e-01</leafValues></_>
        <_>
          <internalNodes>
            0 -1 19 -1.9077803939580917e-02</internalNodes>
          <leafValues>
            3.1460133194923401e-01 -3.6998951435089111e-01</leafValues></_>
        <_>
          <internalNodes>
            0 -1 122 3.3374330960214138e-03</internalNodes>
          <leafValues>
            -7.6031470298767090e-01 1.4588436484336853e-01</leafValues></_>
        <_>
          <internalNodes>
            0 -1 128 1.3942525256425142e-03</internalNodes>
          <leafValues>
            1.7746010422706604e-01 -6.2085300683975220e-01</leafValues></_>
        <_>
          <internalNodes>
            0 -1 88 -3.2248133793473244e-03</internalNodes>
          <leafValues>
            4.2651218175888062e-01 -2.7626439929008484e-01</leafValues></_>
        <_>
          <internalNodes>
            0 -1 129 -1.4231811510398984e-03</internalNodes>
          <leafValues>
            -6.6048103570938110e-01 1.8474811315536499e-01</leafValues></_>
        <_>
          <internalNodes>
            0 -1 3 2.6347353123128414e-03</internalNodes>
          <leafValues>
            -3.1232839822769165e-01 3.9253324270248413e-01</leafValues></_>
        <_>
          <internalNodes>
            0 -1 41 6.2496843747794628e-04</internalNodes>
          <leafValues>
            1.3597144186496735e-01 -7.4899333715438843e-01</leafValues></_>
        <_>
          <internalNodes>
            0 -1 169 1.2551240622997284e-02</internalNodes>
          <leafValues>
            -2.9490476846694946e-01 3.3986720442771912e-01</leafValues></_>
        <_>
          <internalNodes>
            0 -1 40 3.3806795254349709e-03</internalNodes>
          <leafValues>
            1.4808417856693268e-01 -7.0896297693252563e-01</leafValues></_>
        <_>
          <internalNodes>
            0 -1 70 2.1716628689318895e-03</internalNodes>
          <leafValues>
            1.4073011279106140e-01 -6.2113279104232788e-01</leafValues></_>
        <_>
          <internalNodes>
            0 -1 103 8.9648608118295670e-03</internalNodes>
          <leafValues>
            2.1497622132301331e-01 -5.1270669698715210e-01</leafValues></_>
        <_>
          <internalNodes>
            0 -1 161 -8.9583580847829580e-04</internalNodes>
          <leafValues>
            3.5675275325775146e-01 -3.2913658022880554e-01</leafValues></_></weakClassifiers></_>
    <!-- stage 13 -->
    <_>
      <maxWeakCount>12</maxWeakCount>
      <stageThreshold>-1.6409360170364380e+00</stageThreshold>
      <weakClassifiers>
        <_>
          <internalNodes>
            0 -1 138 -5.9833638370037079e-02</internalNodes>
          <leafValues>
            4.1999998688697815e-01 -6.3259470462799072e-01</leafValues></_>
        <_>
          <internalNodes>
            0 -1 9 -1.0989941656589508e-02</internalNodes>
          <leafValues>
            3.9220187067985535e-01 -4.4255426526069641e-01</leafValues></_>
        <_>
          <internalNodes>
            0 -1 131 6.3219247385859489e-03</internalNodes>
          <leafValues>
            -3.0557730793952942e-01 3.9628335833549500e-01</leafValues></_>
        <_>
          <internalNodes>
            0 -1 10 -1.2382504064589739e-03</internalNodes>
          <leafValues>
            2.3162557184696198e-01 -4.9455556273460388e-01</leafValues></_>
        <_>
          <internalNodes>
            0 -1 22 9.0124341659247875e-04</internalNodes>
          <leafValues>
            1.7104895412921906e-01 -8.7009137868881226e-01</leafValues></_>
        <_>
          <internalNodes>
            0 -1 43 -3.5448186099529266e-02</internalNodes>
          <leafValues>
            2.4188607931137085e-01 -4.4532030820846558e-01</leafValues></_>
        <_>
          <internalNodes>
            0 -1 2 9.3592908233404160e-03</internalNodes>
          <leafValues>
            -2.7595329284667969e-01 4.6423193812370300e-01</leafValues></_>
        <_>
          <internalNodes>
            0 -1 83 -5.7865651324391365e-03</internalNodes>
          <leafValues>
            -5.9267622232437134e-01 2.0522911846637726e-01</leafValues></_>
        <_>
          <internalNodes>
            0 -1 170 -6.3711917027831078e-04</internalNodes>
          <leafValues>
            -5.8096843957901001e-01 1.8705464899539948e-01</leafValues></_>
        <_>
          <internalNodes>
            0 -1 48 -2.6234023272991180e-02</internalNodes>
          <leafValues>
            2.4330373108386993e-01 -4.4831159710884094e-01</leafValues></_>
        <_>
          <internalNodes>
            0 -1 133 5.3615951910614967e-03</internalNodes>
          <leafValues>
            -2.0053280889987946e-01 6.0550355911254883e-01</leafValues></_>
        <_>
          <internalNodes>
            0 -1 125 -1.0016269516199827e-03</internalNodes>
          <leafValues>
            -6.9819134473800659e-01 2.0637498795986176e-01</leafValues></_></weakClassifiers></_>
    <!-- stage 14 -->
    <_>
      <maxWeakCount>11</maxWeakCount>
      <stageThreshold>-1.3978815078735352e+00</stageThreshold>
      <weakClassifiers>
        <_>
          <internalNodes>
            0 -1 42 1.1138756573200226e-01</internalNodes>
          <leafValues>
            -6.2731152772903442e-01 4.1968911886215210e-01</leafValues></_>
        <_>
          <internalNodes>
            0 -1 167 5.1478901877999306e-03</internalNodes>
          <leafValues>
            -4.3200793862342834e-01 3.1883090734481812e-01</leafValues></_>
        <_>
          <internalNodes>
            0 -1 114 -1.5967532526701689e-03</internalNodes>
          <leafValues>
            -7.2072792053222656e-01 1.6779391467571259e-01</leafValues></_>
        <_>
          <internalNodes>
            0 -1 0 -1.1316675692796707e-02</internalNodes>
          <leafValues>
            4.2946782708168030e-01 -3.0626919865608215e-01</leafValues></_>
        <_>
          <internalNodes>
            0 -1 24 2.2561717196367681e-04</internalNodes>
          <leafValues>
            -4.6615794301033020e-01 2.6509523391723633e-01</leafValues></_>
        <_>
          <internalNodes>
            0 -1 66 1.3576503843069077e-02</internalNodes>
          <leafValues>
            -3.7623903155326843e-01 3.4624144434928894e-01</leafValues></_>
        <_>
          <internalNodes>
            0 -1 34 1.3068771222606301e-03</internalNodes>
          <leafValues>
            1.4644199609756470e-01 -7.8558975458145142e-01</leafValues></_>
        <_>
          <internalNodes>
            0 -1 93 1.7037231009453535e-03</internalNodes>
          <leafValues>
            2.2600576281547546e-01 -4.6015772223472595e-01</leafValues></_>
        <_>
          <internalNodes>
            0 -1 143 4.3991437996737659e-04</internalNodes>
          <leafValues>
            -5.3324186801910400e-01 2.0356024801731110e-01</leafValues></_>
        <_>
          <internalNodes>
            0 -1 6 -1.5094187110662460e-02</internalNodes>
          <leafValues>
            -7.8985500335693359e-01 1.2627685070037842e-01</leafValues></_>
        <_>
          <internalNodes>
            0 -1 11 -1.7232265323400497e-02</internalNodes>
          <leafValues>
            -7.6762461662292480e-01 1.2121831625699997e-01</leafValues></_></weakClassifiers></_>
    <!-- stage 15 -->
    <_>
      <maxWeakCount>14</maxWeakCount>
      <stageThreshold>-1.6867437362670898e+00</stageThreshold>
      <weakClassifiers>
        <_>
          <internalNodes>
            0 -1 21 -4.7603570856153965e-03</internalNodes>
          <leafValues>
            -7.6376557350158691e-02 -7.3166024684906006e-01</leafValues></_>
        <_>
          <internalNodes>
            0 -1 116 -2.2519385442137718e-02</internalNodes>
          <leafValues>
            5.0097000598907471e-01 -3.2067021727561951e-01</leafValues></_>
        <_>
          <internalNodes>
            0 -1 68 -2.2019450552761555e-03</internalNodes>
          <leafValues>
            2.9466432332992554e-01 -4.3184754252433777e-01</leafValues></_>
        <_>
          <internalNodes>
            0 -1 147 -9.8049128428101540e-04</internalNodes>
          <leafValues>
            -6.0856252908706665e-01 1.8414899706840515e-01</leafValues></_>
        <_>
          <internalNodes>
            0 -1 15 1.8116462975740433e-02</internalNodes>
          <leafValues>
            -5.6795799732208252e-01 2.4083244800567627e-01</leafValues></_>
        <_>
          <internalNodes>
            0 -1 145 3.7160986103117466e-03</internalNodes>
          <leafValues>
            1.9791148602962494e-01 -6.1091351509094238e-01</leafValues></_>
        <_>
          <internalNodes>
            0 -1 33 -5.2175729069858789e-04</internalNodes>
          <leafValues>
            2.4166503548622131e-01 -4.6420320868492126e-01</leafValues></_>
        <_>
          <internalNodes>
            0 -1 32 -5.6792683899402618e-03</internalNodes>
          <leafValues>
            -9.0623378753662109e-01 7.3264449834823608e-02</leafValues></_>
        <_>
          <internalNodes>
            0 -1 168 -5.1430414896458387e-04</internalNodes>
          <leafValues>
            2.8973466157913208e-01 -3.4751829504966736e-01</leafValues></_>
        <_>
          <internalNodes>
            0 -1 14 -8.8097678963094950e-04</internalNodes>
          <leafValues>
            -5.1042103767395020e-01 1.8493115901947021e-01</leafValues></_>
        <_>
          <internalNodes>
            0 -1 111 -1.2849662452936172e-03</internalNodes>
          <leafValues>
            -9.2458254098892212e-01 8.8980093598365784e-02</leafValues></_>
        <_>
          <internalNodes>
            0 -1 50 -7.8068359289318323e-04</internalNodes>
          <leafValues>
            3.3600801229476929e-01 -2.8932532668113708e-01</leafValues></_>
        <_>
          <internalNodes>
            0 -1 153 -4.8409625887870789e-03</internalNodes>
          <leafValues>
            1.3828463852405548e-01 -7.2999966144561768e-01</leafValues></_>
        <_>
          <internalNodes>
            0 -1 158 -1.2225386453792453e-03</internalNodes>
          <leafValues>
            4.8975279927253723e-01 -2.0987211167812347e-01</leafValues></_></weakClassifiers></_>
    <!-- stage 16 -->
    <_>
      <maxWeakCount>17</maxWeakCount>
      <stageThreshold>-1.8044863939285278e+00</stageThreshold>
      <weakClassifiers>
        <_>
          <internalNodes>
            0 -1 94 -1.6868755221366882e-01</internalNodes>
          <leafValues>
            5.4545456171035767e-01 -5.9509199857711792e-01</leafValues></_>
        <_>
          <internalNodes>
            0 -1 38 6.0218693688511848e-03</internalNodes>
          <leafValues>
            -3.2442927360534668e-01 4.8661911487579346e-01</leafValues></_>
        <_>
          <internalNodes>
            0 -1 27 -1.0923543944954872e-02</internalNodes>
          <leafValues>
            5.1595151424407959e-01 -2.4554421007633209e-01</leafValues></_>
        <_>
          <internalNodes>
            0 -1 152 1.9934124429710209e-04</internalNodes>
          <leafValues>
            -4.2679145932197571e-01 2.6123723387718201e-01</leafValues></_>
        <_>
          <internalNodes>
            0 -1 86 1.4908378943800926e-03</internalNodes>
          <leafValues>
            1.3829493522644043e-01 -7.1209609508514404e-01</leafValues></_>
        <_>
          <internalNodes>
            0 -1 36 -2.4470034986734390e-02</internalNodes>
          <leafValues>
            3.6745738983154297e-01 -2.8285405039787292e-01</leafValues></_>
        <_>
          <internalNodes>
            0 -1 163 -1.3643309939652681e-03</internalNodes>
          <leafValues>
            -8.3214682340621948e-01 9.6848867833614349e-02</leafValues></_>
        <_>
          <internalNodes>
            0 -1 171 -6.6513335332274437e-03</internalNodes>
          <leafValues>
            -4.7553446888923645e-01 1.9650721549987793e-01</leafValues></_>
        <_>
          <internalNodes>
            0 -1 71 -3.1705484725534916e-03</internalNodes>
          <leafValues>
            4.5901152491569519e-01 -2.4603271484375000e-01</leafValues></_>
        <_>
          <internalNodes>
            0 -1 35 3.7599122151732445e-04</internalNodes>
          <leafValues>
            1.4246089756488800e-01 -8.3252304792404175e-01</leafValues></_>
        <_>
          <internalNodes>
            0 -1 156 1.6746014356613159e-02</internalNodes>
          <leafValues>
            -2.0459492504596710e-01 5.4537057876586914e-01</leafValues></_>
        <_>
          <internalNodes>
            0 -1 90 3.7093654274940491e-02</internalNodes>
          <leafValues>
            -1.1654108017683029e-01 8.2603985071182251e-01</leafValues></_>
        <_>
          <internalNodes>
            0 -1 113 -8.1219262210652232e-04</internalNodes>
          <leafValues>
            2.3894962668418884e-01 -4.3198171257972717e-01</leafValues></_>
        <_>
          <internalNodes>
            0 -1 57 4.9361330457031727e-03</internalNodes>
          <leafValues>
            1.0405138880014420e-01 -8.6631548404693604e-01</leafValues></_>
        <_>
          <internalNodes>
            0 -1 134 5.7005125563591719e-04</internalNodes>
          <leafValues>
            -2.7964574098587036e-01 3.5232830047607422e-01</leafValues></_>
        <_>
          <internalNodes>
            0 -1 126 4.3759577238233760e-05</internalNodes>
          <leafValues>
            -7.2297453880310059e-01 1.3385139405727386e-01</leafValues></_>
        <_>
          <internalNodes>
            0 -1 139 -1.7652159929275513e-01</internalNodes>
          <leafValues>
            -9.3956893682479858e-01 7.2531968355178833e-02</leafValues></_></weakClassifiers></_>
    <!-- stage 17 -->
    <_>
      <maxWeakCount>14</maxWeakCount>
      <stageThreshold>-1.6360063552856445e+00</stageThreshold>
      <weakClassifiers>
        <_>
          <internalNodes>
            0 -1 140 -2.8738532215356827e-02</internalNodes>
          <leafValues>
            6.5811967849731445e-01 -5.9244263172149658e-01</leafValues></_>
        <_>
          <internalNodes>
            0 -1 109 1.3484237715601921e-02</internalNodes>
          <leafValues>
            -4.2303442955017090e-01 3.4719017148017883e-01</leafValues></_>
        <_>
          <internalNodes>
            0 -1 18 -5.7105142623186111e-03</internalNodes>
          <leafValues>
            4.1102626919746399e-01 -3.7367397546768188e-01</leafValues></_>
        <_>
          <internalNodes>
            0 -1 65 6.7696541547775269e-02</internalNodes>
          <leafValues>
            -5.4592114686965942e-01 2.1531175076961517e-01</leafValues></_>
        <_>
          <internalNodes>
            0 -1 82 -2.7150274254381657e-03</internalNodes>
          <leafValues>
            -8.9532637596130371e-01 1.3528525829315186e-01</leafValues></_>
        <_>
          <internalNodes>
            0 -1 149 -2.3428741842508316e-03</internalNodes>
          <leafValues>
            4.0238878130912781e-01 -2.8653031587600708e-01</leafValues></_>
        <_>
          <internalNodes>
            0 -1 12 -9.4789091963320971e-04</internalNodes>
          <leafValues>
            -6.8192654848098755e-01 1.4792418479919434e-01</leafValues></_>
        <_>
          <internalNodes>
            0 -1 100 -3.0471428763121367e-03</internalNodes>
          <leafValues>
            2.4055762588977814e-01 -4.7370710968971252e-01</leafValues></_>
        <_>
          <internalNodes>
            0 -1 136 -1.5537451254203916e-03</internalNodes>
          <leafValues>
            -6.2039864063262939e-01 1.3717266917228699e-01</leafValues></_>
        <_>
          <internalNodes>
            0 -1 117 -1.2035234831273556e-03</internalNodes>
          <leafValues>
            1.6505268216133118e-01 -5.7664281129837036e-01</leafValues></_>
        <_>
          <internalNodes>
            0 -1 69 -1.7177695553982630e-05</internalNodes>
          <leafValues>
            3.4633848071098328e-01 -2.8759932518005371e-01</leafValues></_>
        <_>
          <internalNodes>
            0 -1 4 4.3117338791489601e-03</internalNodes>
          <leafValues>
            2.5099155306816101e-01 -4.1890427470207214e-01</leafValues></_>
        <_>
          <internalNodes>
            0 -1 165 2.4665615055710077e-03</internalNodes>
          <leafValues>
            1.5147374570369720e-01 -7.2872310876846313e-01</leafValues></_>
        <_>
          <internalNodes>
            0 -1 159 3.4432020038366318e-03</internalNodes>
          <leafValues>
            -3.2964920997619629e-01 3.9346686005592346e-01</leafValues></_></weakClassifiers></_>
    <!-- stage 18 -->
    <_>
      <maxWeakCount>16</maxWeakCount>
      <stageThreshold>-1.7367269992828369e+00</stageThreshold>
      <weakClassifiers>
        <_>
          <internalNodes>
            0 -1 157 -2.0229911431670189e-02</internalNodes>
          <leafValues>
            6.5467625856399536e-01 -6.1095893383026123e-01</leafValues></_>
        <_>
          <internalNodes>
            0 -1 54 -2.2059970433474518e-05</internalNodes>
          <leafValues>
            1.8376800417900085e-01 -6.0048061609268188e-01</leafValues></_>
        <_>
          <internalNodes>
            0 -1 72 1.6861376352608204e-03</internalNodes>
          <leafValues>
            -2.9283577203750610e-01 4.9455547332763672e-01</leafValues></_>
        <_>
          <internalNodes>
            0 -1 166 5.1478552632033825e-04</internalNodes>
          <leafValues>
            -4.6423730254173279e-01 2.7859959006309509e-01</leafValues></_>
        <_>
          <internalNodes>
            0 -1 101 -1.2016544351354241e-03</internalNodes>
          <leafValues>
            -8.7491995096206665e-01 1.3675704598426819e-01</leafValues></_>
        <_>
          <internalNodes>
            0 -1 155 -2.9567748424597085e-04</internalNodes>
          <leafValues>
            -6.6382449865341187e-01 1.7340026795864105e-01</leafValues></_>
        <_>
          <internalNodes>
            0 -1 26 2.3978123441338539e-02</internalNodes>
          <leafValues>
            -5.3645354509353638e-01 2.1282956004142761e-01</leafValues></_>
        <_>
          <internalNodes>
            0 -1 164 -2.1647321409545839e-04</internalNodes>
          <leafValues>
            5.4151487350463867e-01 -2.4137105047702789e-01</leafValues></_>
        <_>
          <internalNodes>
            0 -1 119 9.1023799031972885e-03</internalNodes>
          <leafValues>
            2.5186970829963684e-01 -4.9311214685440063e-01</leafValues></_>
        <_>
          <internalNodes>
            0 -1 1 -3.3747732639312744e-02</internalNodes>
          <leafValues>
            1.9550749659538269e-01 -7.0518463850021362e-01</leafValues></_>
        <_>
          <internalNodes>
            0 -1 31 1.3324889587238431e-03</internalNodes>
          <leafValues>
            -5.5835849046707153e-01 2.7171188592910767e-01</leafValues></_>
        <_>
          <internalNodes>
            0 -1 28 6.9646492600440979e-02</internalNodes>
          <leafValues>
            1.4041978120803833e-01 -7.9036659002304077e-01</leafValues></_>
        <_>
          <internalNodes>
            0 -1 64 5.4437100887298584e-02</internalNodes>
          <leafValues>
            -3.0083739757537842e-01 3.8516384363174438e-01</leafValues></_>
        <_>
          <internalNodes>
            0 -1 84 -3.4269203897565603e-03</internalNodes>
          <leafValues>
            3.9578011631965637e-01 -3.2360035181045532e-01</leafValues></_>
        <_>
          <internalNodes>
            0 -1 132 -4.2571583762764931e-03</internalNodes>
          <leafValues>
            -4.7101140022277832e-01 2.6531764864921570e-01</leafValues></_>
        <_>
          <internalNodes>
            0 -1 142 5.8353180065751076e-03</internalNodes>
          <leafValues>
            -3.0929332971572876e-01 4.4952952861785889e-01</leafValues></_></weakClassifiers></_></stages>
  <features>
    <_>
      <rects>
        <_>
          0 0 18 4 -1.</_>
        <_>
          0 0 9 2 2.</_>
        <_>
          9 2 9 2 2.</_></rects>
      <tilted>0</tilted></_>
    <_>
      <rects>
        <_>
          0 0 24 24 -1.</_>
        <_>
          0 0 12 12 2.</_>
        <_>
          12 12 12 12 2.</_></rects>
      <tilted>0</tilted></_>
    <_>
      <rects>
        <_>
          0 1 4 23 -1.</_>
        <_>
          2 1 2 23 2.</_></rects>
      <tilted>0</tilted></_>
    <_>
      <rects>
        <_>
          0 2 4 5 -1.</_>
        <_>
          2 2 2 5 2.</_></rects>
      <tilted>0</tilted></_>
    <_>
      <rects>
        <_>
          0 2 24 2 -1.</_>
        <_>
          0 2 12 1 2.</_>
        <_>
          12 3 12 1 2.</_></rects>
      <tilted>0</tilted></_>
    <_>
      <rects>
        <_>
          0 3 14 12 -1.</_>
        <_>
          0 3 7 6 2.</_>
        <_>
          7 9 7 6 2.</_></rects>
      <tilted>0</tilted></_>
    <_>
      <rects>
        <_>
          0 7 3 9 -1.</_>
        <_>
          0 10 3 3 3.</_></rects>
      <tilted>0</tilted></_>
    <_>
      <rects>
        <_>
          0 7 9 10 -1.</_>
        <_>
          3 7 3 10 3.</_></rects>
      <tilted>0</tilted></_>
    <_>
      <rects>
        <_>
          0 8 22 6 -1.</_>
        <_>
          0 10 22 2 3.</_></rects>
      <tilted>0</tilted></_>
    <_>
      <rects>
        <_>
          0 9 6 6 -1.</_>
        <_>
          2 9 2 6 3.</_></rects>
      <tilted>0</tilted></_>
    <_>
      <rects>
        <_>
          0 9 10 1 -1.</_>
        <_>
          5 9 5 1 2.</_></rects>
      <tilted>0</tilted></_>
    <_>
      <rects>
        <_>
          0 10 5 9 -1.</_>
        <_>
          0 13 5 3 3.</_></rects>
      <tilted>0</tilted></_>
    <_>
      <rects>
        <_>
          0 11 3 2 -1.</_>
        <_>
          0 12 3 1 2.</_></rects>
      <tilted>0</tilted></_>
    <_>
      <rects>
        <_>
          0 11 5 6 -1.</_>
        <_>
          0 13 5 2 3.</_></rects>
      <tilted>0</tilted></_>
    <_>
      <rects>
        <_>
          0 11 21 2 -1.</_>
        <_>
          0 12 21 1 2.</_></rects>
      <tilted>0</tilted></_>
    <_>
      <rects>
        <_>
          0 15 24 6 -1.</_>
        <_>
          0 15 12 3 2.</_>
        <_>
          12 18 12 3 2.</_></rects>
      <tilted>0</tilted></_>
    <_>
      <rects>
        <_>
          0 21 2 2 -1.</_>
        <_>
          1 21 1 2 2.</_></rects>
      <tilted>0</tilted></_>
    <_>
      <rects>
        <_>
          1 5 6 14 -1.</_>
        <_>
          3 5 2 14 3.</_></rects>
      <tilted>0</tilted></_>
    <_>
      <rects>
        <_>
          1 6 4 4 -1.</_>
        <_>
          3 6 2 4 2.</_></rects>
      <tilted>0</tilted></_>
    <_>
      <rects>
        <_>
          1 6 6 11 -1.</_>
        <_>
          3 6 2 11 3.</_></rects>
      <tilted>0</tilted></_>
    <_>
      <rects>
        <_>
          1 6 14 3 -1.</_>
        <_>
          1 7 14 1 3.</_></rects>
      <tilted>0</tilted></_>
    <_>
      <rects>
        <_>
          1 7 2 10 -1.</_>
        <_>
          2 7 1 10 2.</_></rects>
      <tilted>0</tilted></_>
    <_>
      <rects>
        <_>
          1 8 3 3 -1.</_>
        <_>
          1 9 3 1 3.</_></rects>
      <tilted>0</tilted></_>
    <_>
      <rects>
        <_>
          1 10 6 7 -1.</_>
        <_>
          3 10 2 7 3.</_></rects>
      <tilted>0</tilted></_>
    <_>
      <rects>
        <_>
          1 12 4 4 -1.</_>
        <_>
          1 14 4 2 2.</_></rects>
      <tilted>0</tilted></_>
    <_>
      <rects>
        <_>
          2 0 1 6 -1.</_>
        <_>
          2 3 1 3 2.</_></rects>
      <tilted>0</tilted></_>
    <_>
      <rects>
        <_>
          2 0 12 22 -1.</_>
        <_>
          2 0 6 11 2.</_>
        <_>
          8 11 6 11 2.</_></rects>
      <tilted>0</tilted></_>
    <_>
      <rects>
        <_>
          2 2 6 6 -1.</_>
        <_>
          2 2 3 3 2.</_>
        <_>
          5 5 3 3 2.</_></rects>
      <tilted>0</tilted></_>
    <_>
      <rects>
        <_>
          2 2 20 6 -1.</_>
        <_>
          2 2 10 3 2.</_>
        <_>
          12 5 10 3 2.</_></rects>
      <tilted>0</tilted></_>
    <_>
      <rects>
        <_>
          2 3 6 6 -1.</_>
        <_>
          5 3 3 6 2.</_></rects>
      <tilted>0</tilted></_>
    <_>
      <rects>
        <_>
          2 3 8 14 -1.</_>
        <_>
          2 3 4 7 2.</_>
        <_>
          6 10 4 7 2.</_></rects>
      <tilted>0</tilted></_>
    <_>
      <rects>
        <_>
          2 5 14 2 -1.</_>
        <_>
          2 5 7 1 2.</_>
        <_>
          9 6 7 1 2.</_></rects>
      <tilted>0</tilted></_>
    <_>
      <rects>
        <_>
          2 6 2 6 -1.</_>
        <_>
          2 8 2 2 3.</_></rects>
      <tilted>0</tilted></_>
    <_>
      <rects>
        <_>
          2 6 9 2 -1.</_>
        <_>
          2 7 9 1 2.</_></rects>
      <tilted>0</tilted></_>
    <_>
      <rects>
        <_>
          2 9 9 1 -1.</_>
        <_>
          5 9 3 1 3.</_></rects>
      <tilted>0</tilted></_>
    <_>
      <rects>
        <_>
          2 10 1 3 -1.</_>
        <_>
          2 11 1 1 3.</_></rects>
      <tilted>0</tilted></_>
    <_>
      <rects>
        <_>
          2 14 8 6 -1.</_>
        <_>
          2 14 4 3 2.</_>
        <_>
          6 17 4 3 2.</_></rects>
      <tilted>0</tilted></_>
    <_>
      <rects>
        <_>
          3 2 2 10 -1.</_>
        <_>
          3 7 2 5 2.</_></rects>
      <tilted>0</tilted></_>
    <_>
      <rects>
        <_>
          3 3 4 6 -1.</_>
        <_>
          3 3 2 3 2.</_>
        <_>
          5 6 2 3 2.</_></rects>
      <tilted>0</tilted></_>
    <_>
      <rects>
        <_>
          3 5 10 3 -1.</_>
        <_>
          3 6 10 1 3.</_></rects>
      <tilted>0</tilted></_>
    <_>
      <rects>
        <_>
          3 8 8 2 -1.</_>
        <_>
          3 8 4 1 2.</_>
        <_>
          7 9 4 1 2.</_></rects>
      <tilted>0</tilted></_>
    <_>
      <rects>
        <_>
          3 9 4 3 -1.</_>
        <_>
          3 10 4 1 3.</_></rects>
      <tilted>0</tilted></_>
    <_>
      <rects>
        <_>
          3 14 12 4 -1.</_>
        <_>
          7 14 4 4 3.</_></rects>
      <tilted>0</tilted></_>
    <_>
      <rects>
        <_>
          3 15 16 9 -1.</_>
        <_>
          3 18 16 3 3.</_></rects>
      <tilted>0</tilted></_>
    <_>
      <rects>
        <_>
          4 1 6 18 -1.</_>
        <_>
          4 1 3 9 2.</_>
        <_>
          7 10 3 9 2.</_></rects>
      <tilted>0</tilted></_>
    <_>
      <rects>
        <_>
          4 1 12 10 -1.</_>
        <_>
          8 1 4 10 3.</_></rects>
      <tilted>0</tilted></_>
    <_>
      <rects>
        <_>
          4 1 13 9 -1.</_>
        <_>
          4 4 13 3 3.</_></rects>
      <tilted>0</tilted></_>
    <_>
      <rects>
        <_>
          4 2 4 4 -1.</_>
        <_>
          4 2 2 2 2.</_>
        <_>
          6 4 2 2 2.</_></rects>
      <tilted>0</tilted></_>
    <_>
      <rects>
        <_>
          4 2 10 9 -1.</_>
        <_>
          4 5 10 3 3.</_></rects>
      <tilted>0</tilted></_>
    <_>
      <rects>
        <_>
          4 2 15 2 -1.</_>
        <_>
          4 3 15 1 2.</_></rects>
      <tilted>0</tilted></_>
    <_>
      <rects>
        <_>
          4 3 5 3 -1.</_>
        <_>
          4 4 5 1 3.</_></rects>
      <tilted>0</tilted></_>
    <_>
      <rects>
        <_>
          4 3 20 14 -1.</_>
        <_>
          4 3 10 7 2.</_>
        <_>
          14 10 10 7 2.</_></rects>
      <tilted>0</tilted></_>
    <_>
      <rects>
        <_>
          4 12 6 6 -1.</_>
        <_>
          4 14 6 2 3.</_></rects>
      <tilted>0</tilted></_>
    <_>
      <rects>
        <_>
          4 14 9 3 -1.</_>
        <_>
          7 14 3 3 3.</_></rects>
      <tilted>0</tilted></_>
    <_>
      <rects>
        <_>
          4 20 6 1 -1.</_>
        <_>
          7 20 3 1 2.</_></rects>
      <tilted>0</tilted></_>
    <_>
      <rects>
        <_>
          5 1 2 18 -1.</_>
        <_>
          5 1 1 9 2.</_>
        <_>
          6 10 1 9 2.</_></rects>
      <tilted>0</tilted></_>
    <_>
      <rects>
        <_>
          5 1 4 6 -1.</_>
        <_>
          5 4 4 3 2.</_></rects>
      <tilted>0</tilted></_>
    <_>
      <rects>
        <_>
          5 3 6 8 -1.</_>
        <_>
          7 3 2 8 3.</_></rects>
      <tilted>0</tilted></_>
    <_>
      <rects>
        <_>
          5 5 6 9 -1.</_>
        <_>
          5 8 6 3 3.</_></rects>
      <tilted>0</tilted></_>
    <_>
      <rects>
        <_>
          5 6 5 9 -1.</_>
        <_>
          5 9 5 3 3.</_></rects>
      <tilted>0</tilted></_>
    <_>
      <rects>
        <_>
          5 6 9 3 -1.</_>
        <_>
          5 7 9 1 3.</_></rects>
      <tilted>0</tilted></_>
    <_>
      <rects>
        <_>
          5 8 16 8 -1.</_>
        <_>
          5 8 8 4 2.</_>
        <_>
          13 12 8 4 2.</_></rects>
      <tilted>0</tilted></_>
    <_>
      <rects>
        <_>
          5 9 12 3 -1.</_>
        <_>
          11 9 6 3 2.</_></rects>
      <tilted>0</tilted></_>
    <_>
      <rects>
        <_>
          5 10 6 9 -1.</_>
        <_>
          5 13 6 3 3.</_></rects>
      <tilted>0</tilted></_>
    <_>
      <rects>
        <_>
          5 12 16 8 -1.</_>
        <_>
          5 12 8 4 2.</_>
        <_>
          13 16 8 4 2.</_></rects>
      <tilted>0</tilted></_>
    <_>
      <rects>
        <_>
          5 12 16 12 -1.</_>
        <_>
          5 12 8 6 2.</_>
        <_>
          13 18 8 6 2.</_></rects>
      <tilted>0</tilted></_>
    <_>
      <rects>
        <_>
          5 13 6 5 -1.</_>
        <_>
          7 13 2 5 3.</_></rects>
      <tilted>0</tilted></_>
    <_>
      <rects>
        <_>
          5 17 17 6 -1.</_>
        <_>
          5 19 17 2 3.</_></rects>
      <tilted>0</tilted></_>
    <_>
      <rects>
        <_>
          5 20 8 3 -1.</_>
        <_>
          9 20 4 3 2.</_></rects>
      <tilted>0</tilted></_>
    <_>
      <rects>
        <_>
          5 20 10 2 -1.</_>
        <_>
          5 20 5 1 2.</_>
        <_>
          10 21 5 1 2.</_></rects>
      <tilted>0</tilted></_>
    <_>
      <rects>
        <_>
          6 0 6 9 -1.</_>
        <_>
          8 0 2 9 3.</_></rects>
      <tilted>0</tilted></_>
    <_>
      <rects>
        <_>
          6 1 7 3 -1.</_>
        <_>
          6 2 7 1 3.</_></rects>
      <tilted>0</tilted></_>
    <_>
      <rects>
        <_>
          6 3 3 14 -1.</_>
        <_>
          7 3 1 14 3.</_></rects>
      <tilted>0</tilted></_>
    <_>
      <rects>
        <_>
          6 6 1 6 -1.</_>
        <_>
          6 8 1 2 3.</_></rects>
      <tilted>0</tilted></_>
    <_>
      <rects>
        <_>
          6 6 18 10 -1.</_>
        <_>
          6 6 9 5 2.</_>
        <_>
          15 11 9 5 2.</_></rects>
      <tilted>0</tilted></_>
    <_>
      <rects>
        <_>
          6 8 12 8 -1.</_>
        <_>
          6 8 6 4 2.</_>
        <_>
          12 12 6 4 2.</_></rects>
      <tilted>0</tilted></_>
    <_>
      <rects>
        <_>
          6 8 14 8 -1.</_>
        <_>
          6 8 7 4 2.</_>
        <_>
          13 12 7 4 2.</_></rects>
      <tilted>0</tilted></_>
    <_>
      <rects>
        <_>
          6 11 6 13 -1.</_>
        <_>
          8 11 2 13 3.</_></rects>
      <tilted>0</tilted></_>
    <_>
      <rects>
        <_>
          6 11 10 4 -1.</_>
        <_>
          6 11 5 2 2.</_>
        <_>
          11 13 5 2 2.</_></rects>
      <tilted>0</tilted></_>
    <_>
      <rects>
        <_>
          6 11 18 12 -1.</_>
        <_>
          6 11 9 6 2.</_>
        <_>
          15 17 9 6 2.</_></rects>
      <tilted>0</tilted></_>
    <_>
      <rects>
        <_>
          6 13 6 6 -1.</_>
        <_>
          8 13 2 6 3.</_></rects>
      <tilted>0</tilted></_>
    <_>
      <rects>
        <_>
          6 15 10 9 -1.</_>
        <_>
          6 18 10 3 3.</_></rects>
      <tilted>0</tilted></_>
    <_>
      <rects>
        <_>
          6 16 6 3 -1.</_>
        <_>
          8 16 2 3 3.</_></rects>
      <tilted>0</tilted></_>
    <_>
      <rects>
        <_>
          6 16 4 4 -1.</_>
        <_>
          8 16 2 4 2.</_></rects>
      <tilted>0</tilted></_>
    <_>
      <rects>
        <_>
          7 0 6 14 -1.</_>
        <_>
          9 0 2 14 3.</_></rects>
      <tilted>0</tilted></_>
    <_>
      <rects>
        <_>
          7 0 8 12 -1.</_>
        <_>
          7 4 8 4 3.</_></rects>
      <tilted>0</tilted></_>
    <_>
      <rects>
        <_>
          7 1 6 10 -1.</_>
        <_>
          9 1 2 10 3.</_></rects>
      <tilted>0</tilted></_>
    <_>
      <rects>
        <_>
          7 1 10 3 -1.</_>
        <_>
          7 2 10 1 3.</_></rects>
      <tilted>0</tilted></_>
    <_>
      <rects>
        <_>
          7 1 11 3 -1.</_>
        <_>
          7 2 11 1 3.</_></rects>
      <tilted>0</tilted></_>
    <_>
      <rects>
        <_>
          7 3 16 14 -1.</_>
        <_>
          7 3 8 7 2.</_>
        <_>
          15 10 8 7 2.</_></rects>
      <tilted>0</tilted></_>
    <_>
      <rects>
        <_>
          7 5 1 15 -1.</_>
        <_>
          7 10 1 5 3.</_></rects>
      <tilted>0</tilted></_>
    <_>
      <rects>
        <_>
          7 6 14 10 -1.</_>
        <_>
          7 6 7 5 2.</_>
        <_>
          14 11 7 5 2.</_></rects>
      <tilted>0</tilted></_>
    <_>
      <rects>
        <_>
          7 7 12 10 -1.</_>
        <_>
          7 7 6 5 2.</_>
        <_>
          13 12 6 5 2.</_></rects>
      <tilted>0</tilted></_>
    <_>
      <rects>
        <_>
          7 8 4 3 -1.</_>
        <_>
          9 8 2 3 2.</_></rects>
      <tilted>0</tilted></_>
    <_>
      <rects>
        <_>
          7 8 10 10 -1.</_>
        <_>
          7 8 5 5 2.</_>
        <_>
          12 13 5 5 2.</_></rects>
      <tilted>0</tilted></_>
    <_>
      <rects>
        <_>
          7 9 4 2 -1.</_>
        <_>
          9 9 2 2 2.</_></rects>
      <tilted>0</tilted></_>
    <_>
      <rects>
        <_>
          7 9 8 8 -1.</_>
        <_>
          7 9 4 4 2.</_>
        <_>
          11 13 4 4 2.</_></rects>
      <tilted>0</tilted></_>
    <_>
      <rects>
        <_>
          7 10 8 6 -1.</_>
        <_>
          7 10 4 3 2.</_>
        <_>
          11 13 4 3 2.</_></rects>
      <tilted>0</tilted></_>
    <_>
      <rects>
        <_>
          7 12 14 12 -1.</_>
        <_>
          7 12 7 6 2.</_>
        <_>
          14 18 7 6 2.</_></rects>
      <tilted>0</tilted></_>
    <_>
      <rects>
        <_>
          7 18 8 6 -1.</_>
        <_>
          7 20 8 2 3.</_></rects>
      <tilted>0</tilted></_>
    <_>
      <rects>
        <_>
          7 20 12 3 -1.</_>
        <_>
          11 20 4 3 3.</_></rects>
      <tilted>0</tilted></_>
    <_>
      <rects>
        <_>
          8 0 3 2 -1.</_>
        <_>
          9 0 1 2 3.</_></rects>
      <tilted>0</tilted></_>
    <_>
      <rects>
        <_>
          8 1 3 9 -1.</_>
        <_>
          9 1 1 9 3.</_></rects>
      <tilted>0</tilted></_>
    <_>
      <rects>
        <_>
          8 1 8 5 -1.</_>
        <_>
          12 1 4 5 2.</_></rects>
      <tilted>0</tilted></_>
    <_>
      <rects>
        <_>
          8 4 1 12 -1.</_>
        <_>
          8 8 1 4 3.</_></rects>
      <tilted>0</tilted></_>
    <_>
      <rects>
        <_>
          8 9 8 8 -1.</_>
        <_>
          8 9 4 4 2.</_>
        <_>
          12 13 4 4 2.</_></rects>
      <tilted>0</tilted></_>
    <_>
      <rects>
        <_>
          8 14 6 6 -1.</_>
        <_>
          8 14 3 3 2.</_>
        <_>
          11 17 3 3 2.</_></rects>
      <tilted>0</tilted></_>
    <_>
      <rects>
        <_>
          8 16 14 4 -1.</_>
        <_>
          8 16 7 2 2.</_>
        <_>
          15 18 7 2 2.</_></rects>
      <tilted>0</tilted></_>
    <_>
      <rects>
        <_>
          9 4 5 9 -1.</_>
        <_>
          9 7 5 3 3.</_></rects>
      <tilted>0</tilted></_>
    <_>
      <rects>
        <_>
          9 6 8 6 -1.</_>
        <_>
          9 6 4 3 2.</_>
        <_>
          13 9 4 3 2.</_></rects>
      <tilted>0</tilted></_>
    <_>
      <rects>
        <_>
          9 9 1 12 -1.</_>
        <_>
          9 13 1 4 3.</_></rects>
      <tilted>0</tilted></_>
    <_>
      <rects>
        <_>
          9 20 3 2 -1.</_>
        <_>
          10 20 1 2 3.</_></rects>
      <tilted>0</tilted></_>
    <_>
      <rects>
        <_>
          10 0 4 21 -1.</_>
        <_>
          12 0 2 21 2.</_></rects>
      <tilted>0</tilted></_>
    <_>
      <rects>
        <_>
          10 2 4 20 -1.</_>
        <_>
          12 2 2 20 2.</_></rects>
      <tilted>0</tilted></_>
    <_>
      <rects>
        <_>
          10 3 6 1 -1.</_>
        <_>
          13 3 3 1 2.</_></rects>
      <tilted>0</tilted></_>
    <_>
      <rects>
        <_>
          10 9 4 8 -1.</_>
        <_>
          10 9 2 4 2.</_>
        <_>
          12 13 2 4 2.</_></rects>
      <tilted>0</tilted></_>
    <_>
      <rects>
        <_>
          10 9 6 4 -1.</_>
        <_>
          10 9 3 2 2.</_>
        <_>
          13 11 3 2 2.</_></rects>
      <tilted>0</tilted></_>
    <_>
      <rects>
        <_>
          10 9 6 14 -1.</_>
        <_>
          13 9 3 14 2.</_></rects>
      <tilted>0</tilted></_>
    <_>
      <rects>
        <_>
          10 16 2 6 -1.</_>
        <_>
          11 16 1 6 2.</_></rects>
      <tilted>0</tilted></_>
    <_>
      <rects>
        <_>
          11 1 6 5 -1.</_>
        <_>
          14 1 3 5 2.</_></rects>
      <tilted>0</tilted></_>
    <_>
      <rects>
        <_>
          11 9 10 4 -1.</_>
        <_>
          11 9 5 2 2.</_>
        <_>
          16 11 5 2 2.</_></rects>
      <tilted>0</tilted></_>
    <_>
      <rects>
        <_>
          11 12 10 1 -1.</_>
        <_>
          16 12 5 1 2.</_></rects>
      <tilted>0</tilted></_>
    <_>
      <rects>
        <_>
          11 13 10 6 -1.</_>
        <_>
          11 13 5 3 2.</_>
        <_>
          16 16 5 3 2.</_></rects>
      <tilted>0</tilted></_>
    <_>
      <rects>
        <_>
          11 19 3 2 -1.</_>
        <_>
          12 19 1 2 3.</_></rects>
      <tilted>0</tilted></_>
    <_>
      <rects>
        <_>
          11 20 3 1 -1.</_>
        <_>
          12 20 1 1 3.</_></rects>
      <tilted>0</tilted></_>
    <_>
      <rects>
        <_>
          11 20 2 4 -1.</_>
        <_>
          12 20 1 4 2.</_></rects>
      <tilted>0</tilted></_>
    <_>
      <rects>
        <_>
          12 0 2 11 -1.</_>
        <_>
          13 0 1 11 2.</_></rects>
      <tilted>0</tilted></_>
    <_>
      <rects>
        <_>
          12 0 2 12 -1.</_>
        <_>
          13 0 1 12 2.</_></rects>
      <tilted>0</tilted></_>
    <_>
      <rects>
        <_>
          12 2 3 17 -1.</_>
        <_>
          13 2 1 17 3.</_></rects>
      <tilted>0</tilted></_>
    <_>
      <rects>
        <_>
          12 6 3 9 -1.</_>
        <_>
          13 6 1 9 3.</_></rects>
      <tilted>0</tilted></_>
    <_>
      <rects>
        <_>
          12 6 2 12 -1.</_>
        <_>
          12 10 2 4 3.</_></rects>
      <tilted>0</tilted></_>
    <_>
      <rects>
        <_>
          12 9 1 6 -1.</_>
        <_>
          12 11 1 2 3.</_></rects>
      <tilted>0</tilted></_>
    <_>
      <rects>
        <_>
          12 10 6 7 -1.</_>
        <_>
          14 10 2 7 3.</_></rects>
      <tilted>0</tilted></_>
    <_>
      <rects>
        <_>
          12 10 6 1 -1.</_>
        <_>
          15 10 3 1 2.</_></rects>
      <tilted>0</tilted></_>
    <_>
      <rects>
        <_>
          13 0 6 2 -1.</_>
        <_>
          13 1 6 1 2.</_></rects>
      <tilted>0</tilted></_>
    <_>
      <rects>
        <_>
          13 2 10 6 -1.</_>
        <_>
          18 2 5 6 2.</_></rects>
      <tilted>0</tilted></_>
    <_>
      <rects>
        <_>
          13 5 2 11 -1.</_>
        <_>
          14 5 1 11 2.</_></rects>
      <tilted>0</tilted></_>
    <_>
      <rects>
        <_>
          13 5 6 6 -1.</_>
        <_>
          13 5 3 3 2.</_>
        <_>
          16 8 3 3 2.</_></rects>
      <tilted>0</tilted></_>
    <_>
      <rects>
        <_>
          13 5 6 8 -1.</_>
        <_>
          13 5 3 4 2.</_>
        <_>
          16 9 3 4 2.</_></rects>
      <tilted>0</tilted></_>
    <_>
      <rects>
        <_>
          13 5 9 14 -1.</_>
        <_>
          13 12 9 7 2.</_></rects>
      <tilted>0</tilted></_>
    <_>
      <rects>
        <_>
          13 6 6 4 -1.</_>
        <_>
          13 6 3 2 2.</_>
        <_>
          16 8 3 2 2.</_></rects>
      <tilted>0</tilted></_>
    <_>
      <rects>
        <_>
          13 7 7 12 -1.</_>
        <_>
          13 13 7 6 2.</_></rects>
      <tilted>0</tilted></_>
    <_>
      <rects>
        <_>
          13 9 10 4 -1.</_>
        <_>
          13 9 5 2 2.</_>
        <_>
          18 11 5 2 2.</_></rects>
      <tilted>0</tilted></_>
    <_>
      <rects>
        <_>
          13 12 8 2 -1.</_>
        <_>
          13 12 4 1 2.</_>
        <_>
          17 13 4 1 2.</_></rects>
      <tilted>0</tilted></_>
    <_>
      <rects>
        <_>
          13 17 11 3 -1.</_>
        <_>
          13 18 11 1 3.</_></rects>
      <tilted>0</tilted></_>
    <_>
      <rects>
        <_>
          14 0 2 23 -1.</_>
        <_>
          15 0 1 23 2.</_></rects>
      <tilted>0</tilted></_>
    <_>
      <rects>
        <_>
          14 0 3 12 -1.</_>
        <_>
          14 4 3 4 3.</_></rects>
      <tilted>0</tilted></_>
    <_>
      <rects>
        <_>
          14 1 2 14 -1.</_>
        <_>
          15 1 1 14 2.</_></rects>
      <tilted>0</tilted></_>
    <_>
      <rects>
        <_>
          14 2 6 4 -1.</_>
        <_>
          17 2 3 4 2.</_></rects>
      <tilted>0</tilted></_>
    <_>
      <rects>
        <_>
          14 10 3 2 -1.</_>
        <_>
          14 11 3 1 2.</_></rects>
      <tilted>0</tilted></_>
    <_>
      <rects>
        <_>
          14 13 6 1 -1.</_>
        <_>
          16 13 2 1 3.</_></rects>
      <tilted>0</tilted></_>
    <_>
      <rects>
        <_>
          14 16 6 6 -1.</_>
        <_>
          17 16 3 6 2.</_></rects>
      <tilted>0</tilted></_>
    <_>
      <rects>
        <_>
          14 16 8 4 -1.</_>
        <_>
          14 16 4 2 2.</_>
        <_>
          18 18 4 2 2.</_></rects>
      <tilted>0</tilted></_>
    <_>
      <rects>
        <_>
          15 2 5 20 -1.</_>
        <_>
          15 12 5 10 2.</_></rects>
      <tilted>0</tilted></_>
    <_>
      <rects>
        <_>
          15 9 1 15 -1.</_>
        <_>
          15 14 1 5 3.</_></rects>
      <tilted>0</tilted></_>
    <_>
      <rects>
        <_>
          15 16 2 1 -1.</_>
        <_>
          16 16 1 1 2.</_></rects>
      <tilted>0</tilted></_>
    <_>
      <rects>
        <_>
          16 2 4 6 -1.</_>
        <_>
          18 2 2 6 2.</_></rects>
      <tilted>0</tilted></_>
    <_>
      <rects>
        <_>
          16 3 4 6 -1.</_>
        <_>
          16 3 2 3 2.</_>
        <_>
          18 6 2 3 2.</_></rects>
      <tilted>0</tilted></_>
    <_>
      <rects>
        <_>
          16 22 4 2 -1.</_>
        <_>
          16 23 4 1 2.</_></rects>
      <tilted>0</tilted></_>
    <_>
      <rects>
        <_>
          17 0 5 4 -1.</_>
        <_>
          17 2 5 2 2.</_></rects>
      <tilted>0</tilted></_>
    <_>
      <rects>
        <_>
          17 18 6 1 -1.</_>
        <_>
          20 18 3 1 2.</_></rects>
      <tilted>0</tilted></_>
    <_>
      <rects>
        <_>
          17 22 4 2 -1.</_>
        <_>
          19 22 2 2 2.</_></rects>
      <tilted>0</tilted></_>
    <_>
      <rects>
        <_>
          18 4 3 8 -1.</_>
        <_>
          18 8 3 4 2.</_></rects>
      <tilted>0</tilted></_>
    <_>
      <rects>
        <_>
          18 11 4 4 -1.</_>
        <_>
          18 11 2 2 2.</_>
        <_>
          20 13 2 2 2.</_></rects>
      <tilted>0</tilted></_>
    <_>
      <rects>
        <_>
          19 3 2 1 -1.</_>
        <_>
          20 3 1 1 2.</_></rects>
      <tilted>0</tilted></_>
    <_>
      <rects>
        <_>
          19 11 4 6 -1.</_>
        <_>
          19 13 4 2 3.</_></rects>
      <tilted>0</tilted></_>
    <_>
      <rects>
        <_>
          19 14 2 7 -1.</_>
        <_>
          20 14 1 7 2.</_></rects>
      <tilted>0</tilted></_>
    <_>
      <rects>
        <_>
          19 15 4 4 -1.</_>
        <_>
          21 15 2 4 2.</_></rects>
      <tilted>0</tilted></_>
    <_>
      <rects>
        <_>
          20 0 4 5 -1.</_>
        <_>
          22 0 2 5 2.</_></rects>
      <tilted>0</tilted></_>
    <_>
      <rects>
        <_>
          20 0 4 18 -1.</_>
        <_>
          20 0 2 9 2.</_>
        <_>
          22 9 2 9 2.</_></rects>
      <tilted>0</tilted></_>
    <_>
      <rects>
        <_>
          21 12 1 4 -1.</_>
        <_>
          21 14 1 2 2.</_></rects>
      <tilted>0</tilted></_>
    <_>
      <rects>
        <_>
          23 0 1 18 -1.</_>
        <_>
          23 6 1 6 3.</_></rects>
      <tilted>0</tilted></_></features></cascade>
</opencv_storage>
